,#-of-ghosts-1-step-away,bias,closest-capsule,closest-food,closest-scared-ghost,eats-capsule,eats-food,eats-ghost,trapped,ghosts-in-next-pos
0,-10.108118533256231,30.180895000444934,26.003054609501206,-0.06091944340674453,37.39548602891763,-0.17739288656737248,4.97937806207419,12.274336511320378,-6.337994941262097,
1,-20.15917393949475,22.06416209762032,27.878830512443983,-0.07303547439967532,37.39548602891763,-0.17739288656737248,7.5922685809114165,12.274336511320378,-16.53045125758277,-10.051055406238518
2,-30.31062205754642,85.7828402535168,88.85988379438471,0.6464255943087432,112.82463029780085,0.2641376352168451,12.039171322565384,32.14575136696369,-15.977016945276269,-20.20250352429019
3,-29.889040792082024,123.61824277976052,128.82908058041969,-0.19861168324464537,165.10122097630912,1.7560854858024801,28.878457857117123,47.378813440891214,-16.38995637652307,-20.20250352429019
4,-29.889040792082024,163.85322397987855,154.7177139173265,-0.44288997146640513,209.05944636502755,2.8123202249584955,41.42675948073854,62.284824139044424,-16.197053186476392,-20.20250352429019
5,-29.889040792082024,186.10689175299373,173.34555932271064,-0.5664113369501115,230.35738069375284,5.309132486254331,52.641704646161685,76.68605700616,-16.503023664837464,-20.20250352429019
6,-29.889040792082024,240.68286488689668,210.4442537614811,-0.3514838239244584,283.37695094053026,7.495946720315341,62.524207240110016,104.93996538761162,-16.632093184535815,-20.20250352429019
7,-40.315421669619276,242.85560220745958,219.18096672164543,-0.3990182577741833,301.96047877076103,9.364535572557939,61.189604462727154,115.87967570332506,-16.419003516869974,-30.62888440182744
8,-50.65679737767749,237.7097879093669,224.32360961282762,-0.44649153386815504,309.6502230402316,10.86406654113533,60.54652605925392,115.87967570332506,-26.760379224928194,-40.97026010988566
9,-50.65679737767749,260.7325461684256,233.41843109632254,-0.15199421247753905,344.79925383172366,13.46579831073147,67.99975149827657,128.76326612068885,-27.035015230563594,-40.97026010988566
10,-60.68944734153226,257.50465176029047,240.1214372723717,-0.22785636390793845,358.2001602743096,15.59685478462034,66.28207770796486,131.88514749250203,-27.035015230563594,-51.34344272897978
11,-70.71584134366822,240.63850876520607,235.05373151377242,-0.4623674278639945,364.2030966796638,22.059578277443293,64.04309329105985,145.3397850488568,-27.1979304335219,-51.34344272897978
12,-80.53497568716787,227.8866863429156,222.88360188831476,-0.6179643638212836,380.19080746073456,24.841905947746625,61.90756146439981,155.7617251796303,-37.556719376942254,-61.54153437596132
13,-80.53497568716787,239.94369150997122,223.15827261750388,-0.7382243082136483,396.20303507139835,28.59888463278354,70.22830089043799,168.65280801656834,-37.194525710687905,-61.54153437596132
14,-90.8976571222071,241.51588226608513,234.7285959411849,-0.7861849974108907,410.8624013063514,28.992270756278852,69.58578715728416,179.07643855103797,-38.00243293454977,-61.54153437596132
15,-101.13445886635087,223.147881521396,227.21538127600073,-1.523526370881163,416.93174148371804,31.985158471122013,67.2122946492654,188.98009451071147,-37.5618539961942,-61.54153437596132
16,-101.13445886635087,220.094002929922,221.35076086211964,-1.8381134235034118,423.11444843186,31.741820290750045,76.15251259984944,205.46432683070068,-37.5618539961942,-61.54153437596132
17,-111.40445379191426,215.86941449511943,227.2605315316513,-1.9863208662326894,433.3789617887462,30.648303368665236,75.02580601930514,212.45329247887747,-37.98058746524897,-61.54153437596132
18,-121.42646356573796,201.93884550405537,223.44117249117596,-1.8865704557363558,438.00083583607056,34.345743959574506,73.82483493352133,225.19702052787196,-48.03198997198204,-71.56354414978502
19,-131.60356360422887,189.80672207455117,221.55203305219564,-1.947361173120733,438.00083583607056,34.345743959574506,73.42260446398679,225.19702052787196,-48.03198997198204,-71.56354414978502
20,-141.49681680692623,177.93244587197822,219.65407248667773,-1.977331874790549,438.00083583607056,34.345743959574506,73.12041939652164,225.19702052787196,-57.9252431746794,-81.45679735248238
21,-151.61819437709116,182.07176842011341,233.669556439698,-2.0003946073522867,453.3063117223948,45.18448700987979,72.9492694059565,234.4118754248677,-57.9252431746794,-81.45679735248238
22,-161.584825728344,172.7829153121432,232.02425782751976,-2.252241144202329,460.08606465643413,48.44415207035313,72.38472485071027,243.27762640916532,-67.76557282077123,-81.45679735248238
23,-171.32152507645708,159.42017061002878,228.4464070948804,-2.2739926874313046,458.1179556433273,49.48237640335902,72.2864613847571,246.41890633045034,-77.50227216888432,-91.19349670059547
24,-171.32152507645708,163.6437906805129,228.5392724010844,-2.924295128504327,464.07414670836783,49.53045855598437,82.21882246075569,259.57556394430316,-77.07466376686803,-91.19349670059547
25,-171.32152507645708,178.61388310017867,229.70626859528886,-3.130869725154324,483.16457082461625,50.74115364549663,82.15569612363736,275.7593861456553,-67.13514559809954,-91.19349670059547
26,-178.42565195079806,165.4660450959866,224.60540905453826,-3.189796834191289,488.22996769813193,51.956925224325566,80.68712671366389,278.0715107798051,-76.09289327645862,-100.911311596306
27,-188.40119878577343,146.3018153097105,216.01033393797556,-3.622888862059156,484.44724138438255,50.88842304191105,80.33379593043769,278.0715107798051,-76.09289327645862,-100.911311596306
28,-188.40119878577343,147.74763057162284,213.26542985111985,-4.128004545578199,487.0566480398626,58.332226364868546,90.64561320884438,305.8059670580345,-75.80228166389122,-100.911311596306
29,-194.84469348536985,153.65898362875654,225.37429803059246,-4.211115577161694,504.0803771786263,66.08148186341884,90.5209872280934,311.3824811491867,-85.08424075043422,-100.911311596306
30,-204.77733819111742,141.26531816524016,222.9234367885696,-4.095551496356183,504.38864662459537,66.53534674601896,90.51247712557738,317.342978186932,-85.08424075043422,-100.911311596306
31,-213.21300651537337,130.34354663756716,220.54370436156893,-4.205028902545566,503.929769254148,66.7490334643087,90.56000859404466,317.342978186932,-85.08424075043422,-100.911311596306
32,-213.21300651537337,142.02107867321436,220.5446374478129,-3.9886109752728736,513.7255179461063,67.03289823436167,100.64900202717446,332.1018559366997,-84.87192057204423,-100.911311596306
33,-211.86907060300413,155.18118189182454,228.7730980459393,-4.295032883539364,521.2664010457712,65.05481898507593,110.53547875163179,338.2706463210158,-83.52798465967501,-100.911311596306
34,-221.57290017286684,144.99133756079877,228.36862749860498,-4.547182135514618,532.3255129153506,66.96456343647866,109.05845272267263,340.3651820543531,-84.37078960962961,-110.61514116616871
35,-231.04447103687903,132.87269209074495,225.82710027884087,-4.589514300970911,532.3255129153506,66.96456343647866,108.7136941456228,340.3651820543531,-93.84236047364179,-120.08671203018089
36,-240.6369409825262,127.77368594500267,235.24224204237905,-4.865597470070435,543.4769910329762,69.159648094162,108.66919880726448,357.93073767182335,-94.15492739699569,-129.67918197582807
37,-249.99357948027,123.52966512028141,240.3090365894485,-4.960743177878477,555.695049381493,70.96714834414665,107.84932418933904,369.65959534779375,-103.60757028551681,-139.03582047357187
38,-259.2688164892723,112.32362339359783,238.6812518794149,-5.258801216999677,558.5863241899918,73.07877516327919,107.76417532593977,383.98832041425914,-114.22619295661485,-148.31105748257417
39,-268.7830030640527,111.15601620216245,247.05634288606905,-5.4702582564136115,566.7219578893181,74.97983647857048,108.54517555408232,392.6751500626837,-123.74037953139526,-148.31105748257417
40,-278.24814219996034,106.69984278101879,251.91580610115597,-5.524763972723296,573.9822127144257,75.40473614453298,108.11917828410348,395.7003305640368,-134.25644095960828,-148.31105748257417
41,-277.75605708760753,117.84823450540476,249.67571191824123,-5.700830097777743,585.0024900036337,76.71363525317919,118.59900324512806,402.3259375812658,-134.50562394176984,-148.31105748257417
42,-286.89697461228684,111.53355953619227,258.64683794562194,-5.955681980158615,595.6840798567972,77.09718553063226,117.9865372752088,414.87136431121985,-143.28951767571772,-157.45197500725348
43,-296.2610487127949,107.02192577304656,263.36929417975716,-5.971242474366097,600.4181566387699,77.62608155295976,118.16586658278634,414.87136431121985,-143.75252023139055,-166.8160491077615
44,-305.6163421224592,98.5660673799193,264.2055877845439,-6.566948460992061,606.8984972064648,79.93745704954658,118.17132873030104,425.0177437836218,-153.10781364105483,-166.8160491077615
45,-305.6163421224592,95.7602154990989,251.95847555193046,-6.978909300681224,607.2365180301656,82.15604990260232,127.28533096670913,440.9979088950644,-152.20606397464906,-166.8160491077615
46,-305.6163421224592,115.78658915843823,258.3168200316139,-7.221448916384942,623.8235251891964,80.15786867919061,137.70818169883947,465.6474363222231,-152.38222947961816,-166.8160491077615
47,-315.2590133801686,107.61691584379946,259.76319308255773,-7.678885743924809,634.3415234151418,84.24232177998049,135.7442225504933,476.5785734381895,-151.66258118452157,-166.8160491077615
48,-324.22316203144527,96.80968202451342,257.9959909937011,-7.700926455599828,634.3415234151418,84.24232177998049,135.09946452254857,476.5785734381895,-160.58859120079728,-175.78019775903817
49,-333.81265347997567,99.40894545244798,269.897082116382,-7.72003978360799,647.1061181216119,85.47866058118142,134.96925542866873,476.5785734381895,-162.64241373829492,-175.78019775903817
